<?xml version="1.0"?>
<opencv_storage>
<my_svm type_id="opencv-ml-svm">
  <svm_type>C_SVC</svm_type>
  <kernel><type>LINEAR</type></kernel>
  <C>1.0000000000000000e-02</C>
  <term_criteria><epsilon>1.1920928955078125e-07</epsilon>
    <iterations>50000</iterations></term_criteria>
  <var_all>3780</var_all>
  <var_count>3780</var_count>
  <class_count>2</class_count>
  <class_labels type_id="opencv-matrix">
    <rows>1</rows>
    <cols>2</cols>
    <dt>i</dt>
    <data>
      -1 1</data></class_labels>
  <sv_total>1</sv_total>
  <support_vectors>
    <_>
      -5.03525324e-02 2.03358065e-02 1.53350551e-02 -7.13036135e-02
      -2.44822465e-02 -1.90513302e-02 2.12232228e-02 -3.29749612e-03
      -5.82645163e-02 -7.74554238e-02 2.54236953e-03 2.36280374e-02
      -4.15414497e-02 -5.05165942e-03 -2.84474306e-02 1.92450937e-02
      9.16788913e-03 -7.01864585e-02 -1.61785837e-02 2.15509217e-02
      2.44913548e-02 -5.29650971e-02 -4.45714220e-02 1.26733128e-02
      7.92793036e-02 4.48358543e-02 -8.33056401e-03 -2.85408590e-02
      3.40276840e-03 2.77963318e-02 -3.72521542e-02 -2.64908820e-02
      -2.04945402e-03 5.39635085e-02 2.41847914e-02 -2.53043231e-02
      -3.20766866e-02 1.23018222e-02 -8.13527498e-03 -2.20324472e-02
      7.00406311e-03 -3.47731560e-02 -1.73228187e-03 -4.09925403e-03
      -4.53436524e-02 -3.37756425e-02 1.17791304e-02 -4.02342454e-02
      -6.94269091e-02 6.27947086e-03 -2.36242637e-02 -1.67518836e-02
      -2.43552439e-02 -5.06198704e-02 -4.33364883e-03 2.80702468e-02
      2.61683911e-02 -2.26900466e-02 -3.45295593e-02 -1.41903274e-02
      3.32847722e-02 1.34830754e-02 -8.47908575e-03 -5.91042510e-04
      3.36341411e-02 2.38413904e-02 -2.96577401e-02 -4.35502939e-02
      -1.69657450e-02 1.32551808e-02 1.99619718e-02 -3.18680741e-02
      -1.73399374e-02 2.66244658e-03 -2.64110379e-02 -4.98139933e-02
      5.26218638e-02 -1.76448319e-02 -6.65590400e-03 -2.81850696e-02
      -3.03841922e-02 -5.25001101e-02 -1.63617246e-02 -2.70448495e-02
      -1.13114333e-02 6.04594499e-02 -2.94932779e-02 -5.14253322e-03
      -3.91422957e-02 -6.57666102e-02 2.17867009e-02 2.81890463e-02
      7.67188473e-03 -1.32809998e-02 6.26495108e-03 -6.77612959e-04
      4.03406331e-03 -9.42896400e-03 -2.01153960e-02 3.10449558e-03
      4.36005145e-02 2.08092127e-02 1.06138755e-02 1.33368727e-02
      -9.10846237e-03 -2.95359222e-03 -3.14400978e-02 -3.62384580e-02
      -7.31412182e-03 -3.19438167e-02 -2.70249322e-02 -3.11029367e-02
      1.83900855e-02 -4.48039696e-02 -1.30251693e-02 -2.48722993e-02
      -4.17815819e-02 4.61805835e-02 2.27551106e-02 4.78553362e-02
      3.41758206e-02 5.09432927e-02 -2.10946295e-02 7.27026770e-03
      3.30823124e-03 1.50230648e-02 1.06007420e-02 1.26031879e-02
      1.61983185e-02 -2.80745956e-03 -3.07453796e-02 -2.92948093e-02
      -3.14685963e-02 -5.41846789e-02 -1.92095619e-02 6.45563304e-02
      5.71979806e-02 8.70213434e-02 5.04555553e-02 8.57167039e-03
      1.35131245e-02 -4.67486493e-03 9.47204977e-03 3.60426083e-02
      3.03932447e-02 4.28263377e-03 1.20031908e-02 -1.53048839e-02
      1.24240741e-02 -3.72753032e-02 -2.30067521e-02 -2.95130443e-02
      2.33442206e-02 4.37791198e-02 4.45656776e-02 3.17254812e-02
      -1.29545452e-02 2.40291934e-02 -1.46869652e-03 2.51253434e-02
      2.12558568e-03 2.95772031e-02 2.63955686e-02 -1.34990225e-03
      2.31695212e-02 5.03465906e-03 -3.01321410e-02 -1.91799644e-02
      -2.87085380e-02 -4.44097742e-02 1.95802394e-02 3.62778455e-02
      2.14603711e-02 3.22674923e-02 2.27289014e-02 -2.73651220e-02
      -9.76883108e-04 -9.62289236e-03 -3.05635836e-02 1.50374314e-02
      5.25665358e-02 4.94062752e-02 5.76879736e-03 -4.48776893e-02
      1.06096016e-02 -1.87286362e-02 1.65635590e-02 -2.10106131e-02
      3.44295520e-03 3.81950922e-02 4.14682515e-02 1.90583915e-02
      -2.88018323e-02 2.72990447e-02 -2.70986184e-03 1.09054083e-02
      -1.15713589e-02 2.34264024e-02 -2.56847311e-03 -8.58849939e-03
      1.09046698e-02 -1.77963078e-02 -5.20319827e-02 -1.46598658e-02
      1.61989573e-02 -3.60378213e-02 5.95669262e-03 -1.50717786e-02
      -1.84119157e-02 9.31229442e-03 -1.38724418e-02 -4.17587981e-02
      3.77932307e-03 3.28619294e-02 3.01308953e-03 -1.94901805e-02
      1.21038398e-02 6.20906940e-04 9.43053979e-03 -6.34621084e-02
      3.81931243e-03 -2.65271552e-02 9.38321464e-04 -2.59066001e-02
      2.59734644e-03 5.26941530e-02 2.38884054e-02 5.06885312e-02
      -1.79761946e-02 4.22259010e-02 1.48882046e-02 6.70463890e-02
      1.66547485e-02 2.48507559e-02 -1.87489595e-02 -4.05848585e-02
      -1.34799872e-02 -4.41318490e-02 -7.36696124e-02 -3.10445037e-02
      3.76104191e-03 -1.43357702e-02 -1.79703850e-02 -1.62237305e-02
      2.02973988e-02 3.43254767e-02 8.94655101e-03 -2.12356336e-02
      1.10494336e-02 5.57384640e-02 1.70433912e-02 -5.18881390e-03
      8.76262411e-03 3.10149346e-03 3.58057506e-02 -2.72742249e-02
      1.81556791e-02 -1.19011896e-02 3.61776389e-02 -2.47378703e-02
      -1.88510325e-02 2.71533672e-02 3.72402705e-02 5.00476211e-02
      -6.22074120e-04 3.34470607e-02 7.37025402e-03 1.99751016e-02
      -1.01756863e-02 9.90677532e-03 -2.15987042e-02 4.48696641e-03
      1.03090033e-02 -1.79680884e-02 -2.63169538e-02 -9.36693791e-03
      1.08204242e-02 -5.50776199e-02 -3.88244353e-02 8.55777878e-03
      4.64682132e-02 5.75644448e-02 3.77788097e-02 -1.16884764e-02
      1.30151156e-02 3.66556524e-05 -2.89176498e-02 5.37349051e-03
      3.68828215e-02 1.78073011e-02 -8.71059950e-03 -6.20476641e-02
      8.36531352e-03 -2.43399963e-02 -1.24373019e-03 -2.27161702e-02
      2.58839466e-02 2.28058062e-02 -3.01126344e-03 1.04810763e-02
      -2.80941892e-02 4.69305068e-02 -9.71402973e-03 1.26343025e-02
      8.39536916e-03 4.03321497e-02 3.48429917e-03 1.44927539e-02
      1.74093172e-02 2.11956003e-03 -3.33493836e-02 -1.48895793e-02
      -1.24669606e-02 -3.34622338e-02 1.30464195e-03 3.73175368e-02
      8.77440907e-03 1.70835778e-02 -6.29751536e-04 -2.97578536e-02
      1.25857610e-02 3.05765215e-02 2.39959676e-02 2.81013530e-02
      2.01035105e-02 6.33938471e-03 3.35771330e-02 -1.49681112e-02
      5.06791286e-02 -2.57186545e-03 1.98390502e-02 -8.83517973e-03
      6.41801488e-03 4.00327593e-02 5.48363477e-02 8.27640444e-02
      2.61911228e-02 5.45894317e-02 -1.13271447e-02 1.47829419e-02
      -9.68717318e-03 1.65190250e-02 -3.32811382e-03 -9.20473505e-03
      1.38949445e-02 -1.26275746e-02 -1.50739972e-03 1.40310163e-02
      3.15934643e-02 -4.76973085e-03 1.71400979e-03 -2.57805688e-03
      1.84793361e-02 6.25235662e-02 1.40584530e-02 -1.48210966e-04
      4.83269757e-03 1.24298586e-02 -8.49051587e-03 6.32480253e-04
      5.40644154e-02 3.58173847e-02 4.49415445e-02 -3.83854844e-03
      1.86794382e-02 -8.89751501e-03 8.57397262e-03 -1.05211826e-03
      2.29840335e-02 4.17513885e-02 3.29389572e-02 2.83388738e-02
      -1.23949833e-02 4.29276899e-02 8.81140679e-03 2.99168695e-02
      1.77312419e-02 4.85957116e-02 4.50515710e-02 1.80697422e-02
      2.10278034e-02 -1.84969623e-02 -5.82924150e-02 -3.02048363e-02
      -1.61864366e-02 -3.55381332e-02 3.13406177e-02 5.40387221e-02
      4.11814498e-03 2.25775074e-02 -3.19287963e-02 -5.14028855e-02
      -2.35811528e-03 1.46117751e-02 -1.21912675e-03 4.45741266e-02
      6.24517724e-02 2.19194442e-02 2.05472335e-02 -1.62286237e-02
      4.09110375e-02 8.28388799e-03 2.50537563e-02 2.87378137e-03
      4.53384183e-02 7.41864666e-02 2.99134366e-02 6.83916453e-03
      1.03125628e-02 7.28729814e-02 -4.53637866e-03 1.15658976e-02
      9.12670698e-03 4.34917770e-02 3.04421075e-02 -6.48996793e-03
      2.87313364e-03 -2.65870038e-02 -3.87347937e-02 -1.91899831e-03
      2.43308931e-03 -6.62197266e-03 2.17793602e-02 2.83914544e-02
      1.12180831e-02 -3.63464616e-02 -2.26338618e-02 -1.62259676e-02
      -2.16323766e-03 -1.01525057e-02 7.08262436e-03 9.43721272e-03
      5.87562919e-02 9.74036194e-03 -4.54558879e-02 -2.15153005e-02
      4.48420867e-02 4.48034192e-03 -9.78078507e-03 8.17024522e-03
      3.75346765e-02 5.33560552e-02 1.56855937e-02 -2.06614882e-02
      -1.15051996e-02 2.25601513e-02 5.98391704e-02 -2.70078029e-03
      5.17997518e-03 4.48215976e-02 1.63918268e-02 -3.72878462e-03
      -4.77748848e-02 -1.85103640e-02 -1.79515462e-02 -3.06727942e-02
      -6.85625151e-02 -3.10498960e-02 7.03079998e-03 3.21712419e-02
      2.33558491e-02 -1.78040331e-03 1.58760138e-03 -1.28176585e-02
      1.03907315e-02 -3.66675369e-02 -1.35828527e-02 1.34066176e-02
      1.81334075e-02 -9.03150998e-03 -3.44231836e-02 -2.86274143e-02
      3.08709196e-03 2.28968952e-02 1.79547712e-03 -1.64279155e-02
      -2.62242672e-03 1.39417257e-02 7.36759976e-03 -1.30740954e-02
      -2.51846528e-03 5.43236583e-02 2.03044731e-02 4.33030166e-02
      4.09662835e-02 1.83106139e-02 -2.16807728e-03 -1.58796413e-03
      -2.02533696e-02 -1.93051819e-03 -2.87574660e-02 -1.89967621e-02
      -1.31318783e-02 -1.74846780e-02 -8.47353414e-03 9.31172166e-03
      1.77955199e-02 -1.01882117e-02 3.22874226e-02 2.65426915e-02
      2.46284679e-02 3.71785611e-02 2.97030434e-02 -1.26681169e-02
      -4.23626602e-02 2.64491863e-03 9.04057920e-03 -1.79942995e-02
      1.04044296e-01 1.34098046e-02 3.16947773e-02 3.87293361e-02
      -3.72496955e-02 -1.61086284e-02 2.05612872e-02 -2.04989910e-02
      -1.77424457e-02 8.76055732e-02 7.76633807e-03 -5.07993670e-03
      -1.45167690e-02 -4.33114246e-02 -1.15349516e-02 4.87408452e-02
      4.74998308e-03 -5.95837552e-03 6.33118153e-02 2.67376546e-02
      1.23567879e-02 3.79242450e-02 -2.00864021e-02 6.80633029e-03
      5.50408401e-02 1.87264979e-02 4.18848777e-03 3.72733176e-02
      1.65272839e-02 2.56714365e-03 1.83086228e-02 3.11488542e-03
      -6.46854043e-02 1.12951081e-02 2.91228388e-02 -3.45908403e-02
      -6.73767775e-02 -1.70571543e-02 6.02791347e-02 3.39719951e-02
      -3.71199399e-02 -7.18675032e-02 -6.09104801e-03 -9.27291985e-05
      -4.92186099e-02 -3.10658514e-02 -1.15974974e-02 2.24080887e-02
      6.89008320e-03 -6.27063140e-02 -2.70827059e-02 5.37397303e-02
      2.10368335e-02 -3.40089016e-02 -3.84607874e-02 -3.48949768e-02
      3.34625766e-02 4.56320383e-02 2.18548323e-03 -5.46823815e-02
      3.31126228e-02 -1.86812610e-03 -1.39558306e-02 -2.07582638e-02
      -1.04574021e-02 3.65428366e-02 2.89301667e-02 -3.80441844e-02
      -3.26807387e-02 1.08915688e-02 1.58594884e-02 1.29553247e-02
      -1.05346804e-02 -5.27298264e-03 3.60211730e-02 2.36219727e-03
      -4.62406501e-02 -3.55673209e-02 4.09048516e-03 1.89727675e-02
      2.83083711e-02 -3.36301960e-02 -1.57183353e-02 -1.00329332e-03
      5.30249206e-03 -4.37163971e-02 -3.05319782e-02 2.05794796e-02
      -3.24162878e-02 -1.69188231e-02 -2.67160814e-02 -2.66717486e-02
      4.89009880e-02 5.61172664e-02 -6.72571082e-03 -8.01371187e-02
      -1.41678145e-02 -3.53453681e-02 -1.14430655e-02 -2.72745881e-02
      -8.95140041e-03 3.80464047e-02 3.91807444e-02 -2.91633736e-02
      1.16815828e-02 1.39507912e-02 6.45708106e-03 3.14105651e-04
      -3.46932076e-02 -1.03129940e-02 -1.28136221e-02 2.21697520e-02
      -1.79750472e-02 1.29806502e-02 7.29230698e-03 5.56428870e-03
      -1.56319598e-04 -1.37707489e-02 -2.13182326e-02 -2.78769676e-02
      -3.37543227e-02 -1.13751902e-03 -2.71076653e-02 2.54292935e-02
      -2.47859833e-04 -1.07986871e-02 -3.95886526e-02 -3.30831930e-02
      8.47697351e-03 -1.59011632e-02 -3.13939229e-02 -1.42975384e-03
      2.17900816e-02 -3.45859653e-03 -3.01994756e-02 -1.99411940e-02
      1.30776200e-03 5.49428025e-03 -4.85493317e-02 -1.83603559e-02
      3.52896079e-02 -8.51064455e-03 2.43448722e-03 8.51185247e-03
      -1.90778468e-02 -9.92546603e-03 -1.50234904e-02 -3.06182969e-02
      2.75577698e-02 1.53866485e-02 -3.43499184e-02 4.99446690e-02
      6.99022263e-02 2.19811834e-02 2.06418037e-02 2.00844835e-02
      2.08593402e-02 6.02098778e-02 1.72805525e-02 -8.34302530e-02
      -8.88001770e-02 -4.82441708e-02 -1.88114196e-02 1.76260974e-02
      5.42920223e-03 -7.23948609e-03 4.33697067e-02 -1.21785719e-02
      -1.21369421e-01 -9.85758007e-02 2.30975430e-02 3.68673913e-02
      7.45753050e-02 5.44281267e-02 5.90837449e-02 5.74428923e-02
      -3.68792862e-02 -7.29839578e-02 1.71457287e-02 4.95743901e-02
      1.63018201e-02 1.81486923e-02 2.42988067e-03 7.05511542e-03
      3.23854722e-02 -1.66137591e-02 -4.11126129e-02 4.62251455e-02
      6.57208562e-02 1.65312663e-02 1.46246366e-02 2.48482302e-02
      -1.11154076e-02 2.23723631e-02 -7.21918121e-02 -1.41858757e-01
      -2.59076394e-02 5.11195362e-02 2.72252262e-02 3.03286482e-02
      3.21572311e-02 2.72077713e-02 2.39833482e-02 -6.67294040e-02
      -9.92283970e-02 4.33595888e-02 3.14842388e-02 1.11517655e-02
      2.73639150e-02 4.13025804e-02 2.81502232e-02 1.52590508e-02
      -4.81606723e-04 -5.59109934e-02 2.79394649e-02 2.70113982e-02
      -1.12020578e-02 -5.17480774e-03 1.70648601e-02 -3.46789882e-02
      1.01211211e-02 3.20305023e-03 -2.24980433e-02 3.46190892e-02
      2.09422130e-02 -2.54966202e-03 3.91200222e-02 3.24995853e-02
      6.73561078e-03 2.30171066e-02 -2.62863934e-02 -9.99544337e-02
      1.71145685e-02 2.83060875e-02 3.50639015e-03 9.30467341e-03
      1.48763219e-02 -7.09876372e-03 1.72578227e-02 -1.80854257e-02
      -6.23366423e-02 2.54929177e-02 2.03874335e-02 1.66272316e-02
      3.76462117e-02 -3.81780497e-04 1.02626933e-02 5.11253951e-03
      4.73200023e-04 -3.22207622e-02 7.97753129e-03 -2.28517856e-02
      -1.62602495e-02 1.83045194e-02 8.18986446e-03 -1.45288045e-02
      1.21503314e-02 7.94172939e-03 2.13545840e-03 2.00342853e-02
      1.00212609e-02 2.06081327e-02 5.68459593e-02 1.43426312e-02
      -2.67511420e-03 1.50151998e-02 -4.09941711e-02 -8.68884996e-02
      6.69600908e-03 -1.98533293e-02 4.40481585e-03 1.57674169e-03
      -1.37468148e-02 -3.65447346e-03 -3.37121636e-02 -2.69343462e-02
      -4.50906754e-02 2.03979798e-02 1.22215040e-02 2.08059456e-02
      1.98271908e-02 -1.30520770e-02 -2.11883821e-02 -1.96563713e-02
      -2.37791892e-03 2.36985236e-02 2.95305699e-02 4.48226696e-03
      2.06516329e-02 3.55397388e-02 1.06902327e-02 -2.07604524e-02
      -2.46544667e-02 3.03367153e-02 4.05966416e-02 6.59260079e-02
      3.93870622e-02 1.09574450e-02 2.85107102e-02 2.41279919e-02
      1.34308555e-03 2.60950997e-02 -8.11278746e-02 -6.65960610e-02
      8.32619425e-03 1.15261190e-02 1.88961681e-02 1.20863058e-02
      -4.12100693e-04 -3.44746523e-02 -4.51742671e-02 -5.50813489e-02
      -3.03372946e-02 1.83137115e-02 -1.30849145e-02 -2.19342299e-02
      -1.95011757e-02 1.39445737e-02 -1.53642632e-02 -7.28856698e-02
      4.98628803e-02 2.79526412e-02 4.93538715e-02 1.28216017e-02
      -3.02239358e-02 -5.75409038e-03 3.33324075e-02 1.91103481e-03
      3.18665691e-02 4.57119495e-02 1.25108166e-02 4.10891809e-02
      3.52271236e-02 -2.51318216e-02 1.77725218e-02 6.58562630e-02
      5.15255891e-02 5.09294048e-02 -1.95375010e-02 -2.43619084e-02
      2.01916676e-02 -3.61067355e-02 -7.49219358e-02 -5.58039099e-02
      -1.95877701e-02 -2.66383942e-02 -4.05916162e-02 -1.75597630e-02
      -9.56861582e-03 9.08598583e-03 -4.36347304e-03 -5.88158295e-02
      -2.64123213e-02 1.16122188e-02 1.87537970e-03 -1.32955890e-02
      1.97644494e-02 -9.51850414e-03 3.56145836e-02 1.78850349e-02
      -4.31677373e-03 2.38083992e-02 6.49967790e-02 4.37218100e-02
      4.63856123e-02 3.85238975e-02 1.54146021e-02 5.76780215e-02
      2.36285031e-02 1.03895264e-02 1.31327454e-02 4.10151929e-02
      3.99081409e-02 4.98437136e-02 -4.03139219e-02 -3.58590297e-02
      1.03672501e-02 -1.61946528e-02 -5.86358681e-02 -2.57074591e-02
      2.82370653e-02 1.00157904e-02 -4.86098090e-03 -4.93332325e-03
      -2.63226032e-02 4.24308516e-02 2.23267227e-02 -2.59856209e-02
      1.45968078e-02 5.13514653e-02 2.85485592e-02 -1.25583950e-02
      7.62484223e-02 7.16721267e-03 4.03550789e-02 9.08387359e-03
      -1.45776989e-02 -2.03951402e-03 1.99907031e-02 1.36497300e-02
      8.63729268e-02 9.20576006e-02 2.19585784e-02 3.18767838e-02
      -5.40839601e-03 8.64475220e-03 2.66122296e-02 3.12447064e-02
      2.46878564e-02 7.48929530e-02 1.16664777e-02 6.60666032e-03
      1.55302174e-02 -8.03345162e-03 -5.74643016e-02 1.03903413e-02
      2.45604478e-02 1.17104864e-02 1.37484008e-02 1.38818810e-03
      -9.00141988e-03 9.94489994e-03 -3.57581563e-02 -6.86308518e-02
      6.68533240e-03 2.13889405e-02 2.09208224e-02 -1.14765605e-02
      5.38723320e-02 1.79585926e-02 1.56152239e-02 -5.10507636e-03
      1.15683470e-02 3.70176174e-02 3.70098427e-02 1.10325450e-02
      5.85709736e-02 4.16502394e-02 -6.71607163e-03 -9.43986606e-03
      1.51276812e-02 4.13607284e-02 4.15588208e-02 3.92628387e-02
      3.27838548e-02 6.91222027e-02 -1.26519548e-02 -2.24416908e-02
      -2.10619681e-02 -1.32692046e-02 -1.18761584e-02 1.68029442e-02
      4.94249687e-02 2.93360502e-02 1.93924345e-02 -1.45334490e-02
      -1.96874160e-02 -4.61476520e-02 -9.31122433e-03 -1.87872048e-03
      -6.26630429e-03 4.80407476e-03 7.71507667e-03 1.56467706e-02
      6.00314848e-02 5.52787026e-03 -9.43513215e-03 2.04824936e-02
      5.73111363e-02 2.09973622e-02 -1.25604747e-02 9.11835860e-03
      5.32848611e-02 8.02899003e-02 5.14825284e-02 3.14483754e-02
      6.28301948e-02 5.57818189e-02 3.15499268e-02 4.33396548e-03
      2.29621064e-02 6.63904622e-02 -4.11890820e-03 -5.31717390e-02
      -6.66952580e-02 -4.23855558e-02 -3.99539210e-02 -6.24123104e-02
      -3.97793166e-02 -1.75280068e-02 -1.24482962e-03 1.08682560e-02
      -3.27390842e-02 -8.58796574e-03 -3.96557758e-03 -3.67424302e-02
      -5.14393821e-02 -6.80060387e-02 -3.44415009e-02 1.66449994e-02
      2.93384902e-02 3.30587216e-02 4.13177209e-03 2.56538186e-02
      -8.58147722e-03 -1.51298419e-02 -2.56357435e-02 -1.72099713e-02
      1.21913571e-02 3.42668183e-02 4.11450788e-02 2.80184150e-02
      5.69866076e-02 6.08233176e-02 5.08567579e-02 2.73137875e-02
      2.61830613e-02 1.35732992e-02 -4.90173697e-03 -7.65200052e-03
      -2.68159597e-03 -3.61385979e-02 -8.70210752e-02 -7.16816485e-02
      -8.92983899e-02 -5.66106960e-02 -1.14018582e-02 5.68603203e-02
      6.77573457e-02 4.66826074e-02 2.05709618e-02 2.74039130e-03
      4.06497112e-03 9.25065856e-03 1.42900711e-02 2.71065943e-02
      -9.68618877e-03 3.42370160e-02 -3.72079131e-03 -8.50447468e-05
      5.81323467e-02 2.34950259e-02 -1.04374310e-03 5.17420983e-03
      -4.62969840e-02 1.02687785e-02 3.15997005e-02 -3.57315131e-03
      -2.34102886e-02 2.86069661e-02 1.13051003e-02 1.83273591e-02
      2.43718848e-02 -1.92680322e-02 -2.78434413e-03 2.90398337e-02
      1.03580039e-02 3.48253711e-03 4.58668545e-02 1.99862458e-02
      6.26356108e-04 8.70519411e-03 -2.32810024e-02 2.52319295e-02
      2.60029826e-02 6.83973264e-03 -2.13058409e-03 2.50343774e-02
      9.69442335e-05 -2.57099327e-03 2.94696409e-02 1.86152682e-02
      5.54622442e-04 2.97498144e-02 -8.67811590e-03 -5.26859388e-02
      -3.59146334e-02 -2.21730024e-02 5.42915501e-02 4.83714007e-02
      2.22012829e-02 -5.35225198e-02 1.97552163e-02 -3.02141104e-02
      -4.66299616e-02 -4.13398910e-03 -1.43536814e-02 6.19536936e-02
      3.89340036e-02 -2.07269322e-02 -3.05280443e-02 3.22145969e-02
      3.82862873e-02 -1.84463896e-02 -4.33155261e-02 -2.64279563e-02
      5.44746183e-02 3.52067798e-02 -5.14671803e-02 -6.03013858e-02
      -1.20308681e-03 -1.35165574e-02 -4.85413000e-02 -2.51636002e-02
      -3.80197801e-02 4.81903441e-02 4.03195620e-02 -7.70503059e-02
      2.86446176e-02 3.33862416e-02 -3.44549380e-02 -3.47258747e-02
      6.59449678e-03 4.62660864e-02 8.72983634e-02 1.13011487e-01
      9.12407637e-02 -6.25210255e-02 -8.45770687e-02 -7.88539276e-02
      -7.59250224e-02 8.43541883e-03 2.50079781e-02 4.65666354e-02
      4.22509946e-02 -1.31401001e-03 9.63956956e-03 -4.54358086e-02
      -1.29785523e-01 -1.32815003e-01 -5.78315854e-02 -1.38538778e-02
      4.80436422e-02 1.05252631e-01 4.71767411e-02 -1.10701673e-01
      -1.93000033e-01 -2.04433918e-01 -1.79938480e-01 -4.90460396e-02
      -1.00193191e-02 2.97216862e-03 6.17910037e-03 -6.04731329e-02
      -3.13254818e-02 -5.33722760e-03 8.56845174e-03 1.43646123e-02
      5.43243028e-02 4.36203443e-02 3.20941359e-02 -2.37174928e-02
      -2.54556388e-02 2.63678003e-02 -1.53474999e-03 -3.43750492e-02
      -1.60819180e-02 7.04327151e-02 5.72080649e-02 1.97863989e-02
      -6.85341954e-02 -4.85109724e-03 -1.09432280e-01 -1.40098989e-01
      -9.34756175e-02 -5.01574241e-02 3.57239470e-02 3.21074203e-02
      -2.86080986e-02 -8.41557011e-02 -1.01039097e-01 -1.90840270e-02
      -1.14235163e-01 -1.17899738e-01 -8.64730403e-02 1.46687394e-02
      1.48440327e-03 -1.04655206e-01 -1.34626567e-01 -7.90260658e-02
      2.43523940e-02 -1.71742961e-01 -2.27314129e-01 -1.26822755e-01
      7.85068423e-03 4.12064716e-02 1.30162612e-02 -2.45338213e-02
      7.56032467e-02 4.49707126e-03 -1.64225325e-01 -1.47461310e-01
      1.27009414e-02 7.60928020e-02 1.19790271e-01 9.09707695e-02
      8.47856253e-02 1.19910911e-01 3.95534746e-02 -1.75262123e-01
      -2.51308233e-01 -1.65585160e-01 -2.91817226e-02 -4.59798127e-02
      -1.01465493e-01 -8.38968083e-02 1.49718514e-02 1.03207834e-01
      -6.01003729e-02 -9.30606350e-02 -6.45317603e-03 8.02670717e-02
      6.06277101e-02 2.12342851e-02 6.50761276e-02 1.43031195e-01
      -9.64778736e-02 -2.02194050e-01 -8.26782659e-02 1.13585554e-02
      2.01951992e-02 3.79791483e-02 1.13972435e-02 -1.35042043e-02
      -3.76106682e-03 -5.52289449e-02 -1.08354695e-01 1.66585632e-02
      4.40089814e-02 5.03753163e-02 2.89994571e-02 1.07936505e-02
      -1.99087076e-02 -1.30241765e-02 2.59604445e-03 -8.58611017e-02
      -3.94330733e-02 6.49942011e-02 8.79535079e-02 1.79735199e-02
      3.13132972e-04 -1.48081919e-02 6.08137846e-02 -3.96333495e-03
      -1.93640999e-02 3.72551680e-02 1.21610314e-01 1.25743434e-01
      7.27278888e-02 4.05470841e-02 -5.14464593e-03 1.06578497e-02
      -6.30272627e-02 -1.31946161e-01 -1.50188366e-02 3.11894715e-02
      4.83947769e-02 2.14684997e-02 -9.48991999e-03 -6.29265830e-02
      -5.09770364e-02 -8.91590789e-02 -1.19318426e-01 -1.59149468e-02
      3.36658992e-02 5.53066060e-02 3.17369252e-02 -2.67791431e-02
      -5.90155870e-02 -5.99664487e-02 -4.80452040e-03 -4.57722396e-02
      2.81652901e-02 7.08206594e-02 1.00848861e-01 6.80418387e-02
      3.09484787e-02 -2.00920608e-02 1.06370086e-02 -1.64965000e-02
      1.29467640e-02 6.77426532e-02 9.04570520e-02 8.52106363e-02
      5.58337457e-02 1.40023232e-02 -3.34324082e-03 9.97083448e-03
      -7.76035041e-02 -1.24738492e-01 -1.79035347e-02 -3.13282502e-03
      3.41013707e-02 -2.04316322e-02 -4.28954288e-02 -5.47666848e-02
      -8.16822797e-02 -9.26447287e-02 -9.08207372e-02 2.86418665e-03
      3.31804678e-02 2.80491188e-02 -1.72058661e-02 -4.58912142e-02
      -5.28943911e-02 -6.66506812e-02 3.48205529e-02 7.19193788e-03
      5.05436473e-02 2.40450967e-02 3.87533978e-02 7.28525128e-03
      -1.51078813e-02 8.88501760e-03 4.27197963e-02 5.55501282e-02
      3.34874168e-02 5.35898432e-02 6.39811382e-02 4.66332911e-03
      9.32088774e-03 2.75612511e-02 2.31342707e-02 3.78848799e-02
      -1.19670801e-01 -8.83430541e-02 -1.51900575e-02 4.02326435e-02
      3.05085052e-02 -1.95694119e-02 -1.52225066e-02 -6.42352551e-02
      -1.12991512e-01 -9.01972502e-02 -5.76990955e-02 1.13917505e-02
      2.79140808e-02 -1.03139831e-02 -1.75757203e-02 -1.44509161e-02
      -7.90427849e-02 -1.09366313e-01 5.59558868e-02 1.56323034e-02
      4.67532091e-02 7.49181658e-02 7.94069190e-03 -1.41386446e-02
      2.80576497e-02 2.59725563e-02 5.70174269e-02 5.55135086e-02
      3.95616777e-02 4.93979193e-02 7.82575011e-02 1.39067145e-02
      2.67981347e-02 4.88490872e-02 1.47319688e-02 3.33150737e-02
      -6.55970201e-02 -5.37090488e-02 2.30223630e-02 1.93027239e-02
      -1.67897008e-02 -2.90799420e-02 -8.16058647e-03 -7.17741847e-02
      -9.42321122e-02 -5.38612679e-02 -4.28514555e-02 4.21002880e-02
      3.53993773e-02 -3.21888216e-02 -1.44195287e-02 -7.95464218e-03
      -6.89405724e-02 -6.53514192e-02 4.45558131e-02 4.97208070e-03
      7.02074841e-02 8.52336735e-02 3.83866020e-02 3.25514749e-02
      4.19055670e-02 -1.09555165e-03 9.78856254e-03 -1.52892098e-02
      -1.71918597e-03 7.81793073e-02 7.64768198e-02 1.78906601e-02
      3.57445553e-02 7.89133757e-02 3.29852896e-03 -8.71729478e-03
      -5.45394719e-02 -2.15192996e-02 3.60838547e-02 3.67848352e-02
      1.22704804e-02 3.01847924e-02 2.73242220e-02 -5.68400435e-02
      -5.56331314e-02 -4.39783968e-02 -2.09467765e-02 6.33398294e-02
      6.49161041e-02 4.09660265e-02 6.49671480e-02 6.03030734e-02
      1.60341396e-03 -6.12918921e-02 -5.62484041e-02 -2.25950163e-02
      5.09461462e-02 6.96418360e-02 4.56081778e-02 6.29570708e-02
      8.05030912e-02 -2.02977080e-02 -3.39285955e-02 -7.00776353e-02
      -5.90865351e-02 3.95183600e-02 8.26237276e-02 8.57835338e-02
      9.35641900e-02 7.92144388e-02 -4.37058276e-03 -6.05860986e-02
      1.14538381e-02 2.34263390e-03 5.75113036e-02 5.37724048e-02
      2.08992045e-02 5.39526865e-02 5.80457896e-02 1.30578121e-02
      2.99532781e-03 -4.24360065e-03 -2.55162083e-02 3.04671973e-02
      2.65165027e-02 4.63701319e-03 4.14445475e-02 5.50188571e-02
      1.21839968e-02 -7.08205020e-03 -5.69104888e-02 -6.26078323e-02
      5.89460433e-02 8.58670175e-02 7.76767954e-02 8.07842240e-02
      6.46507517e-02 -1.32101299e-02 -2.57486515e-02 -5.85795380e-02
      -4.89819199e-02 4.16892841e-02 6.93056807e-02 6.18733689e-02
      7.58117437e-02 6.52619228e-02 -1.26774684e-02 -4.56571802e-02
      5.82800759e-03 -2.76112892e-02 3.85897583e-04 5.20076789e-02
      6.50383458e-02 6.96599334e-02 7.87859410e-02 3.17278057e-02
      2.10503358e-02 -9.87377204e-03 -9.31329001e-03 -6.35569543e-03
      3.59154940e-02 5.15429266e-02 5.63176684e-02 4.89257202e-02
      1.47184143e-02 -1.89043814e-03 -6.01241775e-02 -5.18753417e-02
      2.50172131e-02 7.53568187e-02 1.05565391e-01 1.04254201e-01
      9.51498747e-02 -2.73908768e-02 -6.22783788e-02 -9.21377167e-02
      -6.93596005e-02 -1.85584510e-03 4.74773645e-02 6.41338974e-02
      7.99651518e-02 6.09364323e-02 -5.24577200e-02 -1.19934678e-01
      9.52920527e-04 -3.84968705e-02 -3.42622064e-02 2.28884555e-02
      2.91648433e-02 1.70589779e-02 1.15202339e-02 8.97958525e-04
      2.23695021e-02 4.65055555e-02 6.32793736e-03 1.31076528e-03
      5.13842888e-02 1.26520814e-02 8.77840724e-03 -1.09997969e-02
      2.66592111e-02 7.11227953e-02 -6.45738170e-02 -8.72485414e-02
      -6.77074492e-02 -1.62760168e-02 5.01702726e-03 2.88095661e-02
      -6.67458400e-03 -5.83282672e-02 -7.01892227e-02 -4.02961150e-02
      -6.33758828e-02 -7.07858801e-02 -1.77124366e-02 -4.99560982e-02
      -3.84123772e-02 -3.98884825e-02 -5.63472211e-02 -3.73500437e-02
      2.39683483e-02 1.00232335e-02 -9.97122005e-03 -5.31632751e-02
      -1.03080675e-01 -9.03163254e-02 -7.27719590e-02 -9.31735709e-03
      2.21803971e-02 8.81224871e-02 8.41746330e-02 6.39556572e-02
      4.09787372e-02 7.27711478e-03 7.66680157e-03 4.35119756e-02
      8.46118331e-02 8.94125551e-02 -1.12652732e-02 -4.84137982e-02
      -5.88246696e-02 -9.90548357e-02 -1.54748961e-01 -1.41890228e-01
      -1.01445012e-01 -5.78038543e-02 -4.09909822e-02 9.36699361e-02
      8.27039704e-02 6.87645227e-02 4.13377732e-02 -3.97658870e-02
      -3.40746045e-02 1.95929352e-02 9.41906646e-02 6.23380244e-02
      -1.15507077e-02 1.51025988e-02 2.63051130e-03 -1.82583462e-02
      2.54756734e-02 -1.19496621e-02 1.70744173e-02 1.53706986e-02
      9.14892938e-04 2.81890482e-02 3.41712758e-02 7.65666878e-03
      4.72724950e-03 2.45453790e-02 -2.65491121e-02 -2.43789516e-02
      1.56221993e-03 3.98237891e-02 -6.56493474e-03 3.00789662e-02
      3.69523130e-02 1.22414893e-02 3.23344655e-02 -4.58452255e-02
      -2.38697082e-02 1.23405913e-02 -2.20456496e-02 1.46794617e-02
      4.35819179e-02 2.49643833e-03 4.74063214e-03 2.77845338e-02
      -3.76542769e-02 -3.82392891e-02 1.26094390e-02 2.32779235e-02
      -3.81545648e-02 5.11208363e-02 5.97271211e-02 1.83492526e-02
      -3.93801555e-02 -7.61678535e-03 6.79322332e-02 5.73928878e-02
      -5.35609163e-02 -5.46999946e-02 5.50123118e-02 1.56972166e-02
      -6.78650662e-02 -7.85663575e-02 -6.01352938e-02 2.92738341e-02
      5.01655377e-02 -7.26051107e-02 -5.14669977e-02 4.31529023e-02
      7.16494620e-02 2.04817969e-02 -1.95883419e-02 2.13796683e-02
      7.15168938e-02 5.05029187e-02 -4.02597710e-02 -6.26268759e-02
      5.03134243e-02 4.63409014e-02 -6.31595701e-02 -6.98250756e-02
      -5.05234338e-02 1.71052292e-02 5.42790592e-02 -3.77509147e-02
      9.19103324e-02 4.91885170e-02 -6.48436695e-02 -1.07244618e-01
      -9.68178287e-02 -6.64497167e-02 1.10338004e-02 8.73923451e-02
      8.46914575e-02 -5.34166209e-03 -1.14278160e-01 -1.67651713e-01
      -1.65482521e-01 -7.59732276e-02 -9.32710171e-02 -4.19174209e-02
      6.34335354e-03 2.24157441e-02 1.08129807e-01 9.49957520e-02
      4.88431640e-02 -5.02750464e-02 -9.02960375e-02 -1.23974688e-01
      -6.24129586e-02 5.44590503e-02 9.63375643e-02 1.98771730e-02
      1.22323148e-02 -2.44693719e-02 -8.77159312e-02 -7.60224387e-02
      -1.42768025e-01 -1.56215549e-01 -9.46430415e-02 -1.26150856e-02
      -3.10656577e-02 -1.16487674e-01 -8.11710283e-02 -4.51800637e-02
      4.38613743e-02 1.30788721e-02 -2.47721113e-02 -5.66431545e-02
      -2.35156175e-02 4.88099568e-02 -6.44375011e-02 -9.76146460e-02
      -5.56843244e-02 3.06466990e-03 -2.26972811e-02 -1.08614214e-01
      -8.24990124e-02 -5.26150921e-03 -3.87530923e-02 -7.10495785e-02
      -3.03945728e-02 -5.87424869e-03 4.03437652e-02 -1.04972832e-02
      -7.12102875e-02 -9.52706337e-02 -3.76967415e-02 1.72020216e-02
      -8.17924440e-02 -1.03260748e-01 -2.04356108e-02 1.09548047e-02
      -2.26907860e-02 -1.02075987e-01 -3.74814086e-02 4.22025248e-02
      1.04363412e-01 -1.02757201e-01 -1.90660253e-01 -1.68257698e-01
      -7.02836961e-02 -1.22568585e-01 -1.55603990e-01 -7.81171098e-02
      4.64711562e-02 1.86899424e-01 3.82097214e-02 -1.69358160e-02
      -1.05294678e-02 4.46975268e-02 -2.90889363e-03 -1.73277725e-02
      5.11887223e-02 1.83063820e-01 5.49852885e-02 -7.00377673e-02
      -1.40032232e-01 -1.26656309e-01 -7.79034719e-02 -1.57563448e-01
      -1.85694531e-01 -9.08788741e-02 1.04266457e-01 1.65227830e-01
      5.89941032e-02 -1.35861402e-02 -1.26612475e-02 4.71932366e-02
      6.48324145e-03 -1.84534043e-02 3.17456722e-02 1.67035624e-01
      7.41935894e-02 -5.37639894e-02 -4.24416587e-02 -1.83942597e-02
      2.80300435e-02 -3.73830646e-02 -3.59501541e-02 -4.88915592e-02
      7.12663308e-02 4.22775820e-02 5.56099461e-03 2.99970731e-02
      6.81911409e-02 9.80083719e-02 4.80161794e-02 1.69070773e-02
      -1.68700051e-02 3.28350365e-02 7.00970739e-02 -2.40692254e-02
      -3.74373347e-02 -6.32141531e-02 2.11770367e-02 -1.66966263e-02
      -3.99248749e-02 -5.23138344e-02 5.43102883e-02 3.33679430e-02
      1.24436887e-02 2.32184213e-02 3.83623168e-02 9.32023600e-02
      7.24047795e-02 4.62829843e-02 2.20254250e-02 1.15523450e-02
      2.51734015e-02 -1.47931920e-02 -9.06838663e-03 1.62138753e-02
      4.44060043e-02 1.25623075e-02 -9.58719477e-03 -3.92317362e-02
      -1.31187188e-02 5.59890531e-02 -5.98323857e-03 6.12176396e-03
      1.92409623e-02 1.54599473e-02 1.42195234e-02 -1.04697868e-02
      3.03314230e-03 4.34842855e-02 1.44135207e-03 -2.99414042e-02
      2.63332529e-03 1.16204843e-02 5.30574434e-02 2.71965843e-02
      5.09170769e-03 1.56622529e-02 2.00951495e-03 4.16002125e-02
      -1.43079124e-02 -8.89842585e-03 4.29353584e-03 8.76000989e-03
      2.95649804e-02 1.72054563e-02 2.75591742e-02 3.38429958e-02
      1.15860946e-01 -1.30823301e-02 -2.16291007e-02 -4.13015224e-02
      -4.24031727e-02 -4.13382128e-02 -3.64399925e-02 1.96731631e-02
      1.06985554e-01 1.23984292e-01 2.25860607e-02 1.42975722e-03
      -2.88464241e-02 -7.12683946e-02 -5.44659980e-02 -2.96934620e-02
      3.03831287e-02 1.24730408e-01 8.01962316e-02 2.72477116e-03
      -4.66754660e-02 -6.01310767e-02 -4.38763238e-02 -2.65114792e-02
      -1.01938937e-02 2.09845472e-02 8.91775936e-02 8.35852176e-02
      -9.42351006e-04 -4.65254225e-02 -8.02124441e-02 -7.81893954e-02
      -2.79307086e-02 5.05707832e-03 4.46487442e-02 9.06535611e-02
      1.14320800e-01 -2.65167514e-03 -2.04718318e-02 -4.36614491e-02
      -1.12244159e-01 -8.75991136e-02 -1.66275464e-02 2.49813357e-03
      1.19598217e-01 1.10785164e-01 1.31669585e-02 2.08067168e-02
      -4.53260681e-03 -7.78650269e-02 -2.17596311e-02 -2.88800220e-03
      -5.86287118e-03 1.31638587e-01 7.76105002e-02 -1.63759142e-02
      -4.33964394e-02 -9.90841910e-02 -1.17216736e-01 -5.57431653e-02
      -8.87694303e-03 1.08035896e-02 8.83277059e-02 8.95560607e-02
      -4.83855046e-03 -1.66146401e-02 -2.66251452e-02 -7.31143504e-02
      -2.80279722e-02 3.01835779e-03 1.98487565e-02 9.64072347e-02
      7.26372451e-02 -2.66952929e-03 2.75260266e-02 3.00065856e-02
      -1.63284987e-02 4.77239396e-03 7.85662327e-03 -4.34839241e-02
      6.01779595e-02 3.50482808e-03 -5.56418225e-02 2.13302355e-02
      3.33588198e-02 -1.03240449e-03 1.90907009e-02 1.73496883e-02
      -5.95537499e-02 -4.78396221e-04 2.61366311e-02 -1.47456471e-02
      1.87973958e-02 1.59531515e-02 -1.96936019e-02 2.37497520e-02
      1.03008030e-02 -1.34710334e-02 7.08029792e-02 -3.21615790e-03
      -5.50513044e-02 2.17442475e-02 3.08522098e-02 -1.09838052e-02
      2.10891888e-02 9.87361465e-03 -6.00837991e-02 -3.25599536e-02
      2.28002705e-02 -4.20936495e-02 3.59652899e-02 5.15861772e-02
      4.43023667e-02 4.16244864e-02 5.19445240e-02 -4.28262018e-02
      1.66034568e-02 -5.75475469e-02 -8.98334160e-02 5.68997907e-03
      5.86063005e-02 6.52668923e-02 4.97125089e-02 2.51978952e-02
      -7.51865432e-02 -3.60605046e-02 2.10479088e-02 -3.87918241e-02
      3.40066254e-02 4.45358269e-02 4.51476574e-02 4.98123467e-02
      3.08077689e-02 -5.23291193e-02 4.91425022e-03 -4.80682217e-02
      -5.61601892e-02 4.59134616e-02 5.09331301e-02 5.22881486e-02
      7.50324354e-02 -2.62337904e-02 -1.04968153e-01 -5.27521893e-02
      -3.78247537e-02 -7.89313242e-02 4.09228131e-02 6.32308722e-02
      4.85296138e-02 5.36432303e-02 4.53303419e-02 -5.59248812e-02
      -1.44095002e-02 -3.14375572e-02 -4.00201939e-02 6.13413341e-02
      5.37371971e-02 6.34367391e-02 5.71738370e-02 4.84743752e-02
      -5.12192473e-02 -2.30704825e-02 -1.94500219e-02 -2.49830279e-02
      5.22984564e-02 6.50635362e-02 4.62158024e-02 7.95213431e-02
      1.46883354e-02 -8.92077684e-02 -2.85197329e-02 -3.66911702e-02
      -2.39543598e-02 4.22243848e-02 4.00636420e-02 3.77094038e-02
      6.57262951e-02 5.43226674e-02 -3.89094613e-02 -6.96240813e-02
      -5.99997491e-03 -1.39925126e-02 5.70038371e-02 8.18868726e-02
      9.12629589e-02 1.14500575e-01 1.02761358e-01 -5.97517285e-03
      -5.55913299e-02 -6.93475902e-02 -6.80196583e-02 2.91959066e-02
      6.22231439e-02 7.59580880e-02 9.13672671e-02 5.75829782e-02
      -5.98074533e-02 -1.05862401e-01 -4.83497381e-02 2.78276112e-03
      9.48983282e-02 8.17740858e-02 8.82264525e-02 1.07997365e-01
      7.19252303e-02 -1.61893368e-02 -5.05357832e-02 -1.18506476e-01
      -6.04757778e-02 7.28647932e-02 5.64438775e-02 6.17124848e-02
      7.27097094e-02 7.56500522e-03 -8.33863094e-02 -1.03145562e-01
      -4.37627546e-03 -4.49019596e-02 -3.36332270e-03 1.46290744e-02
      3.07706837e-02 4.02947851e-02 2.40684077e-02 -3.78329679e-02
      -3.28654125e-02 1.79401096e-02 -2.63086241e-02 -2.12969445e-02
      -2.11276263e-02 -5.94599172e-02 -4.01269868e-02 -1.66943930e-02
      -3.07659768e-02 1.88750792e-02 -5.13401031e-02 -4.60144617e-02
      1.93465669e-02 2.99361050e-02 3.24741304e-02 2.91303769e-02
      -2.13175435e-02 -7.23944455e-02 -3.98707129e-02 6.66196784e-03
      -4.97515202e-02 -3.75063121e-02 -4.70633730e-02 -7.28099123e-02
      -5.97746670e-03 -1.11466891e-03 -3.51079293e-02 1.38604464e-02
      3.10446210e-02 -2.00588498e-02 -4.72076461e-02 -1.01049334e-01
      -1.84397146e-01 -1.62472486e-01 -5.86288050e-02 -2.22827792e-02
      1.75686534e-02 1.42868921e-01 1.20174967e-01 5.55391312e-02
      3.69570814e-02 -3.73986401e-02 -1.97594464e-02 2.32882127e-02
      1.04281850e-01 1.07827060e-01 6.65961020e-03 -3.24726030e-02
      -6.19846508e-02 -1.51606530e-01 -1.80018783e-01 -1.09548554e-01
      -1.17038619e-02 -1.68178771e-02 2.49883085e-02 1.07095920e-01
      1.14450574e-01 4.75739203e-02 -1.20104719e-02 -6.53362572e-02
      1.38687240e-02 7.54493624e-02 1.32885098e-01 1.47581667e-01
      1.97110567e-02 5.42020127e-02 5.41853020e-03 -3.39146890e-03
      2.08418462e-02 -3.60867605e-02 -5.45823798e-02 1.51917813e-02
      -5.95022924e-03 2.61379089e-02 2.52490174e-02 -9.21696983e-03
      -3.41578387e-03 2.48269681e-02 -2.52395496e-02 -3.01861167e-02
      1.51807480e-02 2.56264210e-02 -1.31286941e-02 3.96140516e-02
      -2.65864860e-02 -3.33366431e-02 -2.80218944e-03 -1.50877247e-02
      -1.12961065e-02 4.62525561e-02 7.88018107e-03 6.70179771e-03
      3.13209649e-03 -5.14169224e-02 -1.88877434e-02 2.15440467e-02
      -7.95358326e-03 -1.87631045e-02 2.47072335e-02 1.54625140e-02
      -4.54694852e-02 2.62688939e-02 4.77108322e-02 -7.12303584e-03
      -6.95601339e-03 -2.66724965e-03 1.68036576e-02 2.03429703e-02
      -3.61376405e-02 -8.05077478e-02 3.93056544e-03 4.28028740e-02
      -5.32551557e-02 -1.40762562e-02 -3.81419919e-02 -1.07207084e-02
      9.08927154e-03 -6.42561242e-02 5.37818577e-03 4.40673903e-02
      4.10172567e-02 -2.56914762e-03 -1.95990372e-02 -4.29132506e-02
      -5.46409795e-03 2.54530516e-02 -2.78820917e-02 -4.40229066e-02
      2.21550949e-02 4.53336425e-02 -5.51589020e-03 -1.71743222e-02
      -3.86514366e-02 -2.80006211e-02 2.07726527e-02 -6.19613715e-02
      6.02020659e-02 6.66993484e-02 7.08436370e-02 -2.16348842e-03
      -4.73399162e-02 -1.04044124e-01 -1.17630281e-01 -3.41734849e-02
      1.39164235e-02 -4.53590602e-02 -2.47764438e-02 1.14784734e-02
      -1.82626043e-02 -4.13236357e-02 -1.55988812e-01 -2.04737946e-01
      -1.89709961e-01 -1.10794879e-01 6.25652820e-02 8.23810026e-02
      8.38120133e-02 5.30338399e-02 1.45671284e-02 -2.83794757e-02
      -3.24010178e-02 2.94180084e-02 1.58506352e-02 -1.08038643e-02
      1.87935364e-02 4.69610840e-02 3.12291123e-02 4.98902798e-03
      -5.28060794e-02 -8.00475329e-02 -8.01146403e-02 -5.50203025e-02
      -1.01268716e-01 -1.15701504e-01 -1.12196989e-02 3.27391997e-02
      4.76170294e-02 -1.95513689e-03 -5.64647056e-02 -1.31463721e-01
      -1.05687276e-01 -6.24454767e-02 -1.39785469e-01 -9.35908630e-02
      1.60189401e-02 2.59074196e-02 -6.05527312e-02 -1.04915634e-01
      -9.52885300e-02 -1.13240713e-02 -1.96276158e-02 -3.82523350e-02
      4.28967848e-02 7.21154585e-02 4.19153385e-02 2.68419795e-02
      4.85129282e-03 -2.46846676e-02 -2.70544626e-02 -1.07227871e-02
      -5.88903353e-02 3.48692527e-03 5.87697662e-02 4.53273952e-02
      -1.53719597e-02 -4.47484218e-02 -2.41669137e-02 7.83556607e-03
      5.04593663e-02 -5.77807836e-02 -5.34560569e-02 -2.97843292e-02
      8.39538814e-04 -1.42478049e-01 -2.30864406e-01 -1.56608567e-01
      7.47270510e-02 1.45210564e-01 7.60524273e-02 4.77708578e-02
      7.15103894e-02 1.12740189e-01 8.95507447e-03 -9.14793685e-02
      -6.70106634e-02 7.88923353e-02 7.03542754e-02 -1.61311962e-02
      2.53107175e-02 3.39270011e-02 -1.22662270e-02 -1.19208656e-01
      -2.07595408e-01 -1.53834775e-01 1.65038686e-02 1.10748887e-01
      8.61760303e-02 9.65639576e-02 8.92730653e-02 8.89539048e-02
      7.52182398e-03 -1.29891202e-01 -1.36131153e-01 -1.54148424e-02
      7.37032369e-02 -6.65571075e-04 6.35119760e-03 1.75945368e-02
      1.03918135e-01 4.52071987e-02 -2.54061669e-02 -8.07223395e-02
      5.06259454e-03 2.46386155e-02 -7.45595666e-03 4.44929115e-02
      6.04876727e-02 1.20043993e-01 9.72689912e-02 7.17604160e-02
      3.26485783e-02 1.77322384e-02 -2.20622169e-03 -2.60416791e-02
      1.95043825e-03 8.38940218e-03 3.68198082e-02 1.07350480e-02
      -8.94497186e-02 -2.04275340e-01 -1.09460801e-01 -1.58170741e-02
      -2.73140538e-02 -4.73792432e-03 1.15279183e-02 4.99258712e-02
      4.44478877e-02 4.00429778e-02 -9.05279666e-02 -7.18191639e-02
      1.68942660e-02 -1.94672644e-02 4.65141051e-02 6.37398139e-02
      9.76240635e-02 7.06637353e-02 4.67766896e-02 -1.06384633e-02
      -6.40126457e-03 2.81727072e-02 -1.43155009e-02 2.31665540e-02
      5.81125095e-02 7.70094395e-02 1.03966691e-01 7.17363954e-02
      1.56671405e-02 -3.89911234e-03 -6.52496442e-02 -6.43471852e-02
      -7.13476678e-03 1.12221576e-02 5.80010377e-02 4.45375629e-02
      4.02877154e-03 -1.04733489e-01 -8.38465393e-02 -4.11366746e-02
      -4.13263328e-02 -2.12961994e-02 2.69909352e-02 3.22299674e-02
      7.03781769e-02 1.99041143e-02 -9.72220823e-02 -9.34430584e-02
      4.47979122e-02 -8.41816422e-04 -5.61229978e-03 -5.39905764e-03
      5.67520671e-02 5.60310185e-02 5.37852757e-02 3.75001621e-03
      7.23262224e-03 5.60555756e-02 1.61851197e-02 3.11497189e-02
      5.17473556e-03 3.80633734e-02 6.59219548e-02 5.27471378e-02
      2.93284399e-03 3.03463638e-02 -6.21098392e-02 -4.00218852e-02
      -2.36850195e-02 -3.69632803e-03 3.51340882e-02 3.10339313e-02
      -2.42244615e-03 -1.38560101e-01 -9.15696323e-02 -2.61162352e-02
      -3.15126218e-02 -2.05046590e-02 8.74766521e-03 2.21722387e-02
      4.33902368e-02 6.05847745e-04 -1.14102744e-01 -8.75985026e-02
      5.60826883e-02 1.75973568e-02 2.52753254e-02 -3.25455479e-02
      2.16721408e-02 4.67544533e-02 3.44364904e-02 -3.39372316e-04
      3.99382263e-02 3.28659229e-02 8.34650546e-03 2.61460245e-02
      9.56919789e-03 3.07326075e-02 6.78214654e-02 4.61431108e-02
      2.02278923e-02 5.05391918e-02 -6.69814348e-02 -5.89734651e-02
      -8.92481022e-03 -2.22910643e-02 1.96422637e-02 4.33975123e-02
      3.22379230e-04 -8.77145082e-02 -9.47159082e-02 -9.88333225e-02
      -7.71794170e-02 -2.40604412e-02 -3.78948413e-02 -1.20860124e-02
      4.12868857e-02 9.20594484e-03 -8.23814049e-02 -8.90324339e-02
      -5.96008729e-03 -8.13211873e-03 3.05397734e-02 3.56476381e-02
      8.19577724e-02 9.61092710e-02 7.71736205e-02 9.13868472e-03
      2.46305522e-02 -2.08213218e-02 -6.42378954e-03 6.98981583e-02
      4.68725227e-02 4.52171564e-02 8.02158415e-02 8.20631087e-02
      9.67724714e-03 -7.51601113e-03 -8.13060105e-02 -6.34390116e-02
      -1.86007023e-02 -3.83789837e-02 -5.49489213e-03 4.32152599e-02
      4.42255177e-02 -4.91383448e-02 -8.13937411e-02 -4.62665111e-02
      -4.46303412e-02 2.56403666e-02 -1.34558529e-02 -4.89497138e-03
      4.73525114e-02 6.08898401e-02 -7.70470826e-03 -6.11475594e-02
      -1.90480314e-02 -3.90045792e-02 4.89000715e-02 5.15391901e-02
      4.82545756e-02 5.69404960e-02 5.47823869e-02 -2.37598568e-02
      -4.85942252e-02 -3.95874605e-02 -8.22943170e-03 7.99068287e-02
      8.66520032e-02 7.99748003e-02 8.37240517e-02 1.66281275e-02
      -6.89624324e-02 -7.91047588e-02 -3.68224755e-02 -1.80876534e-02
      2.90524345e-02 1.94668584e-02 1.63986348e-02 3.35045643e-02
      3.72995622e-02 -1.62948333e-02 -5.25595397e-02 -3.11874151e-02
      2.28006542e-02 6.50368258e-02 6.50674850e-02 1.61155276e-02
      4.40065525e-02 3.94977406e-02 -1.74584277e-02 -3.71538848e-02
      -7.64550036e-03 -1.74728222e-02 4.45805565e-02 6.78586513e-02
      7.79777616e-02 7.54525512e-02 1.52657228e-02 -9.69274193e-02
      -4.81435694e-02 -5.05896769e-02 -3.88337895e-02 2.90721525e-02
      4.61467691e-02 4.18640226e-02 4.11555730e-02 3.53966206e-02
      -6.95823804e-02 -6.13698699e-02 -3.43439548e-04 -7.35463947e-03
      5.42129353e-02 2.25594305e-02 1.70849841e-02 5.29312901e-02
      2.90101375e-02 -1.50337704e-02 -1.02427392e-03 -6.92279637e-03
      1.74081244e-03 4.74667884e-02 2.81281117e-02 -1.61180310e-02
      1.43482601e-02 4.15137559e-02 -7.48967985e-03 1.02326041e-03
      -4.06447612e-02 -3.27744596e-02 7.15650395e-02 7.25105703e-02
      7.66602308e-02 6.17650151e-02 2.90733930e-02 -5.00009507e-02
      -6.38724491e-02 -1.21295676e-01 -5.55886663e-02 7.68212751e-02
      6.27091527e-02 4.37648147e-02 2.17057094e-02 -4.08367030e-02
      -1.06303103e-01 -1.08508684e-01 2.72101257e-02 3.61678302e-02
      8.05924013e-02 6.35579675e-02 5.12249582e-02 4.02432978e-02
      2.12236047e-02 -1.07086515e-02 2.38050558e-02 -1.78060774e-02
      5.15324390e-03 6.76319674e-02 4.42128368e-02 3.39488685e-02
      2.78241374e-02 -2.35405434e-02 -3.35266553e-02 -3.84339355e-02
      -7.27261156e-02 -6.16213754e-02 -3.97077878e-04 1.82590093e-02
      7.51404930e-03 -3.02849561e-02 -8.53106678e-02 -1.15929745e-01
      -9.10800695e-02 -4.76245116e-03 -7.28632957e-02 -5.66398017e-02
      -4.84328307e-02 -6.35377243e-02 -1.98228434e-02 -4.77989838e-02
      -5.80396280e-02 -2.93125473e-02 1.66667718e-02 -8.46138131e-03
      3.11296824e-02 1.41701717e-02 2.08545085e-02 1.05617177e-02
      -3.64720859e-02 -4.38051447e-02 -8.11709091e-03 8.76051188e-02
      5.37178852e-03 5.26014157e-03 1.05619337e-02 4.14176472e-03
      4.57856581e-02 1.53610297e-02 1.92794651e-02 6.37159720e-02
      -2.74521690e-02 -8.04661065e-02 -9.77963731e-02 -1.52937800e-01
      -1.56117558e-01 -8.41614679e-02 -3.67566682e-02 -5.24805076e-02
      -6.70963852e-03 5.59409000e-02 6.16003461e-02 2.94360910e-02
      -2.99049020e-02 -4.45067361e-02 3.41239125e-02 6.35067448e-02
      8.08487311e-02 9.34806988e-02 2.17667166e-02 -2.56760456e-02
      -4.86460403e-02 -1.00468993e-01 -9.17803198e-02 -4.70969863e-02
      -6.02555880e-03 9.08990297e-03 3.23897712e-02 8.66954178e-02
      6.72225878e-02 3.78129072e-02 -8.33231956e-03 -7.30803516e-03
      3.05611622e-02 7.05813244e-02 8.79698470e-02 8.78470317e-02
      -2.14059651e-02 1.68182366e-02 -4.67539998e-03 -3.38213183e-02
      8.16989969e-03 -1.47880735e-02 1.98142137e-02 2.92809252e-02
      3.77306063e-03 1.68813653e-02 -1.15811611e-02 -4.44380045e-02
      -4.53480221e-02 1.41022904e-02 -2.45558247e-02 -1.15709780e-02
      3.10696401e-02 1.17285317e-02 -3.36822751e-03 6.87768776e-03
      1.78069156e-02 -7.92229455e-03 1.77602824e-02 -2.61782911e-02
      1.06687413e-03 7.49592716e-03 -2.07571201e-02 4.74836975e-02
      1.26182623e-02 3.66381463e-03 -1.70095600e-02 -1.00298866e-03
      -3.74198519e-02 -8.31095595e-03 3.64621505e-02 4.10705805e-02
      7.96102639e-03 5.22392504e-02 3.04249469e-02 -2.20908178e-03
      -2.57953890e-02 -2.49453057e-02 2.30453089e-02 5.29170297e-02
      -6.50585070e-03 -1.35171246e-02 1.50663508e-02 1.73134655e-02
      1.63543094e-02 1.08896825e-03 -8.89427867e-03 -1.05236378e-03
      5.03221825e-02 -3.89478803e-02 -1.92760881e-02 5.18346652e-02
      5.54536954e-02 -1.06098736e-02 -8.15110430e-02 -7.07117990e-02
      1.14868078e-02 1.45623162e-02 -4.20456454e-02 -7.28034303e-02
      7.86734000e-03 -1.31459506e-02 -1.10509824e-02 -3.60436589e-02
      -5.65635897e-02 -6.00422407e-03 8.58510192e-03 -7.58413374e-02
      1.62516199e-02 5.36945947e-02 3.66987586e-02 5.66374161e-04
      -1.63114015e-02 -7.70501839e-03 -1.87368654e-02 2.36461535e-02
      -1.49847334e-02 -7.12647475e-03 3.44875418e-02 3.94493826e-02
      -5.34900511e-03 -3.03426050e-02 -2.86825038e-02 -3.41088474e-02
      -1.89938601e-02 -4.78321202e-02 -6.04315512e-02 2.47107409e-02
      3.72171439e-02 8.41067173e-03 -2.46234275e-02 -1.65774431e-02
      5.47583308e-03 1.48021551e-02 -5.66296838e-02 -1.90713853e-02
      2.24654246e-02 1.33214612e-02 -1.97412036e-02 -3.95117700e-02
      -2.35323608e-02 9.82923061e-03 2.70866486e-03 -3.83901112e-02
      -6.11582957e-03 7.60054158e-04 1.15668755e-02 -1.19028497e-03
      -1.67407971e-02 -9.37512331e-03 -2.16270657e-03 8.27809889e-03
      -9.03634075e-03 -9.64322966e-03 -4.89959903e-02 -3.82907242e-02
      4.32156696e-04 -3.33889970e-03 -3.29574458e-02 -3.23335975e-02
      -1.31398775e-02 -5.46761509e-03 4.88691404e-03 1.99109670e-02
      -3.30271519e-04 -5.37472079e-03 -2.79797260e-02 -3.43275778e-02
      2.30997354e-02 2.26536077e-02 1.41081912e-02 1.01300804e-02
      -7.15891831e-03 -2.24828497e-02 -3.41171306e-03 -1.21437535e-02
      -6.23941375e-03 2.71996367e-03 -5.48307318e-04 1.01751322e-02
      5.02738357e-02 -2.09005810e-02 -2.54420862e-02 -9.55490675e-03
      -1.79880634e-02 -4.14650664e-02 -6.95280805e-02 -7.47129545e-02
      2.61810366e-02 7.30508938e-02 3.69033068e-02 3.19187269e-02
      2.45317984e-02 3.64749841e-02 1.56417135e-02 -5.66864014e-02
      -1.20638430e-01 -2.05167010e-02 3.64746861e-02 -5.87196322e-03
      -3.48352292e-03 -3.99919087e-03 -1.60718597e-02 1.41898347e-02
      2.04895232e-02 2.54532672e-03 3.40496376e-02 5.49212620e-02
      1.63264871e-02 1.98687632e-02 2.16344725e-02 2.33324356e-02
      3.54058892e-02 4.79915850e-02 -9.56918939e-06 2.02366374e-02
      2.24612225e-02 -9.55010857e-03 -1.18136359e-03 -5.71882632e-03
      4.46865708e-02 3.33312303e-02 -2.90437099e-02 -1.78514302e-01
      -9.45570245e-02 2.90596467e-02 8.90733022e-03 2.44302042e-02
      2.89663542e-02 4.70499247e-02 3.98911573e-02 3.76454331e-02
      -1.23205595e-01 -6.46579191e-02 2.51447186e-02 9.66604054e-03
      8.58310051e-03 1.88557934e-02 2.11727992e-02 3.01637389e-02
      9.44448542e-03 -6.75438046e-02 -4.45914604e-02 3.63483801e-02
      1.38567416e-02 4.61790152e-02 3.91614251e-02 4.05860804e-02
      8.61802995e-02 5.45608923e-02 -5.23714423e-02 -3.40364613e-02
      2.24056225e-02 -1.47008831e-02 5.31232799e-04 -8.97520781e-03
      2.87980661e-02 2.48918235e-02 1.11043146e-02 -1.06430046e-01
      -5.08705825e-02 2.01509204e-02 6.58881525e-03 1.29521042e-02
      3.24972123e-02 1.37187559e-02 2.41609849e-02 2.04980057e-02
      -5.42645231e-02 -1.72575787e-02 -1.39229707e-02 -1.74462460e-02
      3.91714983e-02 9.71956551e-03 1.25186844e-02 4.27832976e-02
      3.26687321e-02 -5.97203299e-02 -2.63061486e-02 2.24758871e-02
      1.22270349e-03 5.64094186e-02 4.68196012e-02 -5.73297171e-03
      3.28213759e-02 3.12286988e-02 -4.74659540e-03 -9.65753663e-03
      -8.53670482e-03 -2.40031015e-02 -1.27229486e-02 -5.65276947e-03
      -1.18993865e-02 3.77689023e-03 -6.44408166e-03 -1.07797056e-01
      -3.82318161e-02 -6.34741643e-03 -1.42442165e-02 6.38111541e-03
      2.35889051e-02 2.44596582e-02 1.50738480e-02 1.83174724e-03
      -7.38776326e-02 -5.11549860e-02 4.15923540e-03 -2.05978248e-02
      2.40171961e-02 1.79124121e-02 -2.83522271e-02 1.19428728e-02
      2.37044264e-02 -6.34382886e-04 -4.54716478e-03 1.32620586e-02
      -6.67850999e-03 3.45739424e-02 2.83921286e-02 1.59564167e-02
      4.03793156e-02 1.34476600e-02 1.46773979e-02 1.95315052e-02
      -2.17042603e-02 -4.35405336e-02 -8.74787383e-03 -1.46369487e-02
      1.36330063e-02 9.12541337e-03 1.03658969e-02 -6.85802624e-02
      -7.56439567e-02 -3.44217122e-02 -3.00844889e-02 -6.13748748e-03
      -3.18910293e-02 -2.51820125e-02 1.62545089e-02 2.26844773e-02
      -5.61158359e-02 -3.71342488e-02 -2.11428814e-02 -4.36347015e-02
      2.17460636e-02 1.52634401e-02 3.74085642e-02 2.28453223e-02
      1.88726000e-02 1.00488802e-02 3.18849203e-03 -9.47551243e-03
      -2.94073522e-02 7.41168251e-03 2.97647193e-02 1.42845763e-02
      6.31018728e-02 5.27553223e-02 9.61734448e-03 8.30712146e-04
      -1.90548841e-02 -1.47997010e-02 -4.34925733e-03 -5.04610650e-02
      -6.70977309e-02 -7.33142113e-03 1.56055698e-02 -3.12469006e-02
      4.51368280e-03 -2.71792291e-03 7.41543993e-03 3.57465930e-02
      -2.97269914e-02 -4.48217727e-02 -1.17681948e-02 1.28394132e-02
      2.98864092e-03 -3.85585753e-03 -1.82062085e-03 -1.79474559e-02
      3.58771682e-02 1.20709660e-02 -2.28372253e-02 2.84775831e-02
      2.65162643e-02 1.38620818e-02 2.25865021e-02 3.12267542e-02
      3.34686041e-02 6.43470064e-02 1.38534345e-02 -1.32607184e-02
      1.26781939e-02 1.88674349e-02 1.45891486e-02 2.75494028e-02
      1.81491543e-02 -6.05730060e-03 1.30645148e-02 -2.32318304e-02
      -3.65346335e-02 -1.49511145e-02 1.37936641e-02 -3.62448022e-02
      -2.17964109e-02 2.54335050e-02 7.94156455e-03 3.18818875e-02
      -8.44864873e-04 -2.67944485e-02 -3.31765739e-03 1.17555428e-02
      -4.91956361e-02 1.30000478e-02 5.28082550e-02 -4.54131979e-03
      2.04279460e-02 4.92579862e-03 -2.12815846e-03 8.11296981e-03
      1.99068077e-02 6.50539622e-03 2.32599284e-02 4.25755754e-02
      1.04078995e-02 1.20202173e-02 2.79176631e-03 1.11688273e-02
      1.08045759e-02 4.54536267e-02 1.63436588e-03 3.10574304e-02
      3.58998440e-02 -1.54864816e-02 1.75592955e-02 -2.24517174e-02
      -4.68234457e-02 -1.11502204e-02 -8.08465760e-03 -2.17169672e-02
      1.16347075e-02 1.32235177e-02 9.83787235e-04 8.24690238e-03
      -2.31101736e-02 -6.53421655e-02 -3.56135517e-02 1.89309120e-02
      -6.62217895e-03 2.89428346e-02 6.40824661e-02 -6.93354197e-03
      1.36815617e-02 -2.77038384e-02 -2.49330606e-02 -3.98979755e-03
      1.53805818e-02 1.80651294e-03 6.37694597e-02 5.01543544e-02
      1.55972969e-02 2.67622191e-02 -4.06312640e-04 -2.76650302e-02
      -3.14448737e-02 2.75730398e-02 2.52444204e-02 6.41264468e-02
      3.28161963e-03 -5.17572509e-03 3.16580459e-02 -8.53392668e-03
      -2.32519191e-02 -1.88122019e-02 -1.93122600e-03 -2.74281055e-02
      -5.52070839e-03 -9.07684863e-03 -3.26542668e-02 -4.92935209e-03
      -1.88558474e-02 -1.06195360e-02 -2.39305291e-03 -5.12496047e-02
      -3.88448462e-02 -2.64377687e-02 4.14890833e-02 3.02199218e-02
      5.38380891e-02 2.42159776e-02 -1.40311820e-02 -1.96604021e-02
      7.04702083e-03 8.18102993e-03 3.16454433e-02 4.23718318e-02
      4.07038778e-02 5.24026006e-02 4.01802212e-02 3.33294459e-02
      1.73937958e-02 -1.22267203e-02 -8.75087921e-03 6.67622825e-03
      -2.06845105e-02 -6.03244938e-02 -5.35698272e-02 -6.92249611e-02
      -5.00441194e-02 -4.18866947e-02 -6.02180660e-02 -5.93331903e-02
      -1.64996479e-02 2.52614319e-02 -5.77385724e-02 -6.66476339e-02
      -5.68789281e-02 -1.38125494e-02 -1.39243705e-02 -1.95949264e-02
      -1.42413406e-02 1.90766770e-02 3.91030423e-02 -1.61228813e-02
      -4.84223757e-03 1.91266451e-03 2.81341001e-02 1.35029359e-02
      4.47680801e-03 -3.28145479e-03 3.69384885e-02 6.55040592e-02
      2.48586964e-02 -6.22935593e-03 2.18924582e-02 4.20367047e-02
      3.66479829e-02 4.09592241e-02 3.65431532e-02 5.72450832e-02
      -1.11402730e-02 -4.76653278e-02 -8.38933885e-02 -7.96204507e-02
      -6.85399249e-02 -4.66630347e-02 -2.01277211e-02 -1.84186781e-03
      3.26761114e-03 8.96382611e-03 2.40264349e-02 -4.02895530e-04
      -1.88743062e-02 -1.21294828e-02 7.97308329e-03 3.95310149e-02
      5.61391935e-02 4.31929082e-02 -3.16283340e-03 8.00310355e-03
      -2.35291030e-02 -2.95065634e-04 9.12995136e-04 -5.58960252e-04
      4.07880347e-04 3.11208069e-02 4.16856958e-03 -6.55182730e-03
      5.86023927e-02 5.01335636e-02 4.02773581e-02 3.84382755e-02
      1.56310610e-02 3.50980088e-02 6.53918087e-02 3.47374529e-02
      -5.25255762e-02 5.36065828e-03 1.88371551e-03 2.32243184e-02
      2.26597749e-02 -5.54137211e-03 3.57798534e-04 2.07597166e-02
      -2.54716296e-02 3.34012844e-02 2.43292954e-02 1.37265474e-02
      2.45796684e-02 1.72695145e-02 -3.06588039e-02 1.29890218e-02
      4.56080064e-02 4.02418226e-02 -6.33376762e-02 2.33051665e-02
      3.78023721e-02 1.39730396e-02 3.71382572e-02 -4.41336296e-02
      -3.78356595e-03 4.31321450e-02 -2.79752072e-02 -4.30110609e-03
      5.44626918e-03 7.83484615e-03 1.02647077e-02 2.82889009e-02
      -4.16603908e-02 1.45869488e-02 3.68658453e-02 1.21664144e-02
      2.01293617e-03 5.99087141e-02 6.56333417e-02 -6.26409426e-03
      -5.94576783e-02 -6.35470748e-02 2.17260364e-02 3.95845436e-02
      -8.93556513e-03 -4.39737439e-02 2.62508634e-02 2.26301774e-02
      -2.04889141e-02 -3.38549204e-02 -6.00766577e-02 3.30770737e-03
      1.88603941e-02 -5.70447743e-02 -5.00100031e-02 2.44917758e-02
      4.01438773e-02 -2.95466017e-02 6.57353271e-03 -6.79360926e-02
      2.25170255e-02 3.69487293e-02 -2.77487431e-02 -9.44830626e-02
      2.61183325e-02 3.43611464e-02 -2.91899517e-02 3.89172174e-02
      -4.21041250e-02 -1.54569549e-02 7.16619194e-03 -8.97355452e-02
      -1.99452210e-02 6.49708370e-03 1.30620785e-03 -6.18250947e-03
      -2.48804875e-02 -1.84245519e-02 -7.03276973e-03 3.16980816e-02
      -2.02805530e-02 -2.80341469e-02 4.12832480e-03 5.50224120e-03
      -1.40514923e-02 -4.80672680e-02 -4.77976501e-02 -8.74847453e-03
      8.67265742e-03 -1.64576340e-02 -6.35889545e-02 4.70158039e-03
      5.47476299e-03 -2.89999619e-02 3.18924785e-02 -2.68818382e-02
      -3.09617911e-02 1.55997416e-02 -2.07558479e-02 -3.06822434e-02
      -3.27752009e-02 -2.13971846e-02 -2.90570166e-02 2.78500672e-02
      -7.74700418e-02 -2.80138031e-02 6.09880919e-03 -8.65342841e-03
      1.93982627e-02 -2.28714738e-02 -5.09993127e-03 -1.10598234e-02
      -2.67122183e-02 -1.54265529e-02 -4.17383062e-03 9.39129107e-03
      4.02447917e-02 8.20791349e-03 -1.29459109e-02 4.94000409e-03
      1.21182986e-02 -2.91644745e-02 -1.15093365e-02 1.42014551e-03
      1.23399904e-03 2.50315089e-02 -8.05250276e-03 -5.17852865e-02
      -4.20064814e-02 -4.76036631e-02 5.40725105e-02 -3.71848531e-02
      -2.09273566e-02 -6.31704321e-03 -3.56644113e-03 -5.58360033e-02
      -5.31741083e-02 -5.32921962e-02 -4.78588454e-02 7.24203214e-02
      2.94837332e-03 1.11902971e-02 -2.00233422e-02 -2.39759907e-02
      4.96824412e-03 -2.96215434e-02 -1.77988149e-02 -5.37801115e-03
      -3.44237275e-02 -1.55975688e-02 -1.30136171e-02 -1.82168167e-02
      2.12421943e-03 2.02237647e-02 -2.22783480e-02 -1.87964793e-02
      1.11172050e-02 -6.49817521e-03 1.19481981e-02 3.07595357e-02
      4.50730659e-02 3.34796384e-02 -3.27971950e-02 -1.71118379e-02
      -2.38224305e-02 -4.06726226e-02 4.94772717e-02 -2.67863851e-02
      3.73543327e-04 -2.46575195e-02 -1.96147598e-02 1.40492953e-02
      -2.53437087e-04 3.76115665e-02 -1.24538839e-02 4.66444381e-02
      9.22537968e-03 4.57107909e-02 2.49592904e-02 3.75435352e-02
      -7.73839792e-03 -4.79996875e-02 -2.96491459e-02 -1.19318664e-02
      -5.25627285e-02 -7.93505646e-03 2.55297357e-03 -1.15920473e-02
      2.92518409e-03 1.09107082e-03 5.31831058e-04 1.33107761e-02
      -2.05191527e-03 -3.38695720e-02 2.00728290e-02 3.66459228e-02
      1.46817723e-02 -4.12814971e-03 1.74678266e-02 -1.82494149e-02
      -6.38089317e-04 -1.83144249e-02 2.91946940e-02 -1.19834188e-02
      2.40477510e-02 3.42954695e-03 1.92494541e-02 5.69571322e-03
      1.04167582e-02 7.45110866e-03 -1.98548064e-02 6.06402792e-02
      1.04229441e-02 7.37949088e-02 4.02635522e-02 1.55540137e-02
      6.29905029e-04 -2.01800019e-02 2.02725679e-02 -1.25964992e-02
      -4.60790023e-02 -5.83965098e-03 3.42432931e-02 -1.18266707e-02
      -3.41577153e-03 -1.92688894e-03 -5.81586966e-03 3.25044021e-02
      1.22326156e-02 -5.13679013e-02 -1.94728952e-02 2.08218228e-02
      -2.83836620e-03 -4.47911955e-03 1.77365821e-02 -1.83766447e-02
      -6.49135374e-03 -3.30970064e-02 3.92706990e-02 -2.93949582e-02
      3.74777541e-02 3.48284431e-02 3.27680856e-02 3.44732217e-02
      3.98869626e-03 1.46386828e-02 -1.67460632e-04 2.99550481e-02
      -3.07908710e-02 4.03095596e-02 4.15719077e-02 3.46488766e-02
      -5.09089092e-03 -4.10882272e-02 -5.77639835e-03 -2.10368093e-02
      -8.36905986e-02 -4.95725945e-02 7.78608909e-03 -3.23463068e-03
      3.43993097e-03 1.09260026e-02 -4.81139356e-03 3.24045643e-02
      -1.39897289e-02 -1.93814039e-02 4.65211953e-04 2.88103577e-02
      1.79656465e-02 2.02207714e-02 9.81059112e-03 -2.12307815e-02
      -2.35051685e-03 -1.43924970e-02 1.46963131e-02 -6.99437112e-02
      9.00355726e-03 1.49633344e-02 1.72684174e-02 2.67670676e-02
      1.13961510e-02 4.93030958e-02 2.12087831e-03 5.39934672e-02
      -3.51453945e-02 5.41410893e-02 3.63039859e-02 3.42981741e-02
      -2.95448266e-02 -4.49620076e-02 9.44842305e-03 -2.70658340e-02
      -9.30982921e-03 -4.62227094e-04 1.34930797e-02 4.59248840e-05
      -9.39337071e-03 -2.55413149e-02 -3.94673683e-02 -3.49533674e-03
      -4.60531795e-03 -1.45505229e-02 3.49193811e-02 4.78390530e-02
      6.21991884e-03 1.57059950e-03 8.08830839e-03 -3.05878837e-03
      3.91408280e-02 -2.72337105e-02 3.75943556e-02 -2.67594457e-02
      4.08897176e-02 1.01186531e-02 1.24317100e-02 1.57703236e-02
      6.82794349e-03 2.97899190e-02 -2.48171519e-02 3.95579785e-02
      6.74632285e-03 4.34937328e-02 1.25309890e-02 3.08609419e-02
      3.88909760e-03 -3.53355482e-02 -1.25858206e-02 5.12661121e-04
      -3.15568186e-02 1.03654712e-02 1.68665387e-02 -5.55109233e-03
      6.59611216e-03 2.42722873e-02 -2.81780120e-03 2.04210058e-02
      1.25790089e-02 -3.46674472e-02 -7.87594635e-03 7.12742796e-03
      1.38729746e-02 3.25648151e-02 4.04623114e-02 -1.22112315e-03
      1.45887174e-02 -7.29069021e-03 1.53465169e-02 -4.34026159e-02
      5.33760106e-03 1.67509653e-02 5.42956926e-02 1.70282815e-02
      1.32666016e-02 1.69744641e-02 -7.54819717e-04 3.77664641e-02
      -3.92367840e-02 1.28117772e-02 1.30557660e-02 4.23129797e-02
      -1.05611957e-03 -2.98529118e-02 4.60073771e-03 1.13050863e-02
      -8.06804164e-04 -2.48079300e-02 4.65833908e-03 8.06353614e-03
      -5.12887072e-03 6.44121435e-04 -2.49746200e-02 1.12429354e-02
      -2.49894452e-04 -1.05380779e-02 -1.68962106e-02 4.05025557e-02
      7.45061785e-04 1.13444263e-02 -2.71162507e-03 1.71210198e-03
      2.48664059e-02 9.44108062e-04 7.28055537e-02 -2.78469622e-02
      2.41323672e-02 9.41236038e-03 2.79940348e-02 2.18657684e-02
      1.61922127e-02 4.49407175e-02 -2.88783689e-03 6.58808127e-02
      -1.16926190e-02 5.54706678e-02 2.46189050e-02 3.23636532e-02
      3.30482349e-02 -2.72593405e-02 -2.88980873e-03 -1.91268306e-02
      -2.62825936e-02 -5.04547097e-02 6.13358291e-03 9.69197694e-03
      5.96664064e-02 4.28749062e-02 -1.46067152e-02 1.15188044e-02
      7.06138846e-04 -4.51018959e-02 -3.81954424e-02 4.08228673e-03
      9.45125800e-03 4.61256094e-02 2.67267823e-02 1.62568875e-02
      2.06412729e-02 -1.51557364e-02 3.51098850e-02 -4.81766090e-02
      1.92236491e-02 1.12001859e-02 4.44796421e-02 9.48273018e-03
      -1.25292481e-05 7.52943568e-03 -1.41744921e-02 6.14819527e-02
      2.52952450e-03 2.09265500e-02 3.46288867e-02 3.39658139e-03
      8.13547429e-03 -1.19310021e-02 1.11944377e-02 -5.90360072e-03
      -5.12810946e-02 -2.60779839e-02 -5.65867918e-03 -1.18485291e-03
      2.20917836e-02 1.40726743e-02 1.12391431e-02 1.59771834e-02
      1.82591751e-02 6.46627508e-03 -1.70611516e-02 -3.05274278e-02
      9.01101809e-03 2.94731222e-02 -5.17121051e-03 -3.04435212e-02
      2.92614871e-03 -1.74760818e-02 5.07538617e-02 9.16507270e-04
      1.50135681e-02 3.29010747e-02 1.70652121e-02 2.04846803e-02
      2.65754363e-03 9.36552230e-03 1.74003039e-02 9.29848328e-02
      2.23756395e-02 1.32594826e-02 1.74667742e-02 4.51515466e-02
      1.45675223e-02 -3.44295986e-02 -3.55392322e-02 -3.91798131e-02
      -2.23646592e-02 -2.26285290e-02 -2.87723150e-02 -1.18190274e-02
      8.38530902e-03 1.55519508e-02 1.48866780e-03 -3.76302004e-02
      8.33289791e-03 6.14111125e-03 -8.55024066e-03 -2.60468852e-03
      -4.29728680e-04 -2.73361430e-03 4.21867333e-02 -1.08577712e-02
      -1.17737362e-02 -1.66447498e-02 5.30524999e-02 -1.88054517e-02
      -2.19749976e-02 -1.59390345e-02 4.34653908e-02 3.84834483e-02
      1.36567513e-03 -1.78277364e-03 3.81539203e-02 4.78766672e-02
      -2.49913282e-04 2.56637856e-02 1.16265444e-02 4.23003025e-02
      -1.44691793e-02 -1.90062087e-03 -8.02265480e-03 1.04663707e-02
      -1.24621764e-02 -2.93252859e-02 -3.47584896e-02 -9.85320844e-03
      -3.22490628e-03 7.65590928e-03 4.55961935e-02 5.87570667e-02
      1.81500781e-02 7.25592813e-03 -2.13909540e-02 -2.51628850e-02
      3.00531834e-02 3.21166888e-02 2.75481027e-03 -1.89329013e-02
      -6.83998829e-03 1.37042282e-02 2.43944339e-02 -3.44234705e-02
      -2.83523388e-02 -1.51323481e-02 -4.26199613e-03 1.50510790e-02
      4.89781462e-02 4.97933328e-02 5.00460574e-03 5.78884147e-02
      -1.62292458e-02 -2.51715854e-02 1.04026450e-02 1.50675476e-02
      -4.39718971e-03 5.43591641e-02 4.25318889e-02 1.57768105e-03
      3.93454172e-02 -2.54858211e-02 -7.91091565e-03 4.06339206e-02
      -7.22700730e-03 1.71806272e-02 8.13203119e-03 -5.61734801e-03
      -5.79253887e-04 3.31362225e-02 -1.98241565e-02 2.42575184e-02
      3.77329066e-02 5.54852374e-03 -3.72499302e-02 5.04313409e-02
      4.33958583e-02 1.38804382e-02 8.08260515e-02 -3.16137299e-02
      -1.73902642e-02 -1.29468655e-02 -4.51290570e-02 -3.67497839e-02
      9.54234786e-03 1.43121020e-03 2.22651511e-02 9.47572663e-02
      -3.04316338e-02 -2.10679625e-03 1.29063893e-02 -3.17613855e-02</_></support_vectors>
  <decision_functions>
    <_>
      <sv_count>1</sv_count>
      <rho>-1.5219110106898326e+00</rho>
      <alpha>
        1.</alpha>
      <index>
        0</index></_></decision_functions></my_svm>
</opencv_storage>
